20 50
</s> -0.010000 -0.000949 -0.000157 0.007802 -0.004775 0.009160 0.000275 0.003503 0.002693 -0.000599 0.002116 0.007509 0.006414 0.003036 0.003444 0.005029 -0.005577 -0.007318 0.001901 0.007887 -0.006720 0.008236 -0.000243 -0.009482 0.002523 -0.004002 -0.009337 -0.004473 0.009624 0.006939 -0.000160 0.002124 0.002150 -0.003164 -0.003439 -0.009075 -0.009343 -0.009820 0.009702 -0.009068 -0.006134 -0.008558 0.006518 -0.006201 0.003556 0.004342 0.003762 -0.002697 -0.006839 0.001996
, 0.094044 0.195893 -0.155718 -0.449506 -0.160736 0.000748 -0.138087 -0.004585 -0.121695 -0.087401 0.018703 0.081959 0.106759 -0.016001 -0.009896 -0.162624 0.014549 0.010382 0.208517 -0.029570 0.180953 0.132365 0.019936 -0.040737 0.019822 0.131696 -0.082430 -0.096060 0.158126 -0.151579 0.035982 0.015035 0.064882 0.080235 0.076560 0.160227 0.067308 0.141098 0.022217 -0.103135 -0.029701 0.006067 0.287858 -0.100301 -0.087588 0.054029 0.039782 0.035716 0.056925 0.183519
de -0.036609 -0.202569 0.329598 -0.003374 0.106534 -0.192507 0.058306 -0.219714 -0.146241 -0.258969 0.167497 0.232043 0.045744 -0.090440 -0.305267 -0.429604 0.227699 0.157796 0.259962 -0.143025 0.124564 -0.183434 -0.007291 -0.403225 -0.195288 -0.044731 0.082876 0.002303 -0.024657 -0.179588 -0.153900 -0.044361 -0.010335 0.353205 0.266641 0.245935 0.182581 0.272554 -0.093561 -0.266258 0.023080 -0.235600 0.014926 -0.034316 0.005626 -0.238506 -0.029600 -0.076428 0.238449 0.046809
. 0.058593 0.129549 -0.034350 -0.473834 0.063438 -0.033615 -0.125483 -0.199749 -0.382868 -0.016156 0.249832 0.055642 0.183288 0.040003 0.173663 0.024672 -0.043506 0.065769 0.338602 -0.103731 0.391395 0.144924 -0.003564 -0.185918 0.019255 0.092935 -0.256902 -0.379843 0.430628 -0.147584 0.039625 -0.019544 0.132334 -0.232604 -0.080251 0.288957 -0.084509 0.157249 -0.194034 -0.309609 -0.166377 -0.272061 0.326051 -0.179171 -0.314521 0.364482 -0.239347 0.052299 -0.087457 0.121807
a 0.200179 -0.111463 -0.124474 -0.143194 0.190161 0.151548 0.007449 -0.106586 -0.153673 -0.247925 0.165995 -0.305338 -0.115046 0.172081 0.207337 0.200857 -0.145173 -0.059243 0.343328 -0.092067 0.152816 -0.050064 0.047828 0.030060 -0.238628 0.101801 0.260110 -0.033052 -0.478083 0.061925 -0.177172 0.165640 0.074349 0.277788 0.006861 -0.108172 0.308546 0.217964 -0.117672 0.233809 -0.024234 -0.443718 0.059637 -0.164946 0.169989 0.423277 -0.229754 0.031898 0.448433 0.080003
o 0.340967 0.022053 -0.235979 0.085716 -0.346366 0.113650 0.069787 0.155209 -0.435382 0.113208 0.423908 -0.417505 0.397896 0.087612 0.339921 0.264150 0.019912 -0.031918 0.030176 0.155701 -0.044462 -0.393373 -0.370404 -0.068151 -0.189808 0.138100 0.174117 0.118940 0.028217 -0.252848 -0.556146 -0.056661 -0.191174 0.053176 0.102511 -0.136588 0.056714 0.216891 -0.072086 -0.287609 0.157493 -0.038777 -0.230027 -0.100157 -0.056518 0.093547 0.046331 0.199101 0.089292 0.356739
e -0.074535 -0.157813 0.050104 -0.193485 0.230980 -0.047589 -0.076649 -0.143546 -0.252615 0.134792 0.126196 0.094769 -0.008797 -0.144708 -0.205632 -0.050422 0.028074 0.050260 0.241963 -0.014062 0.016932 -0.038888 0.126879 -0.162971 -0.072482 -0.014497 -0.166432 0.028176 0.108307 -0.094288 -0.026637 -0.045653 -0.108930 -0.178691 0.006865 0.046574 -0.124117 -0.036855 -0.219427 -0.172301 0.145210 -0.243447 -0.086622 0.002801 0.191723 -0.015311 -0.094917 -0.055859 0.077920 0.137800
que 0.177320 -0.229680 -0.187163 -0.024596 0.117165 -0.319028 -0.000582 -0.381351 -0.198060 -0.073308 0.070473 0.213238 -0.355316 -0.133156 -0.011304 0.072251 0.301046 0.360901 0.170384 0.161110 0.101828 0.269821 0.030177 0.148400 0.239438 0.245977 0.037340 0.052609 0.016269 0.077592 -0.111851 0.072521 -0.200868 -0.213540 -0.246238 -0.203574 0.137485 -0.182957 0.172068 -0.196284 0.310117 -0.493182 -0.037584 0.109424 0.234818 -0.010548 -0.019832 -0.072182 -0.439734 0.131893
do 0.233364 0.018330 -0.029689 -0.028246 -0.144499 -0.058211 0.028090 -0.139562 -0.230117 -0.140891 0.299233 -0.223549 0.525832 -0.116352 0.322948 -0.260643 0.100148 -0.057494 0.245338 0.127645 0.173915 -0.780563 -0.140235 -0.433155 -0.158851 -0.239212 -0.042770 0.169747 -0.122377 -0.286761 -0.219842 -0.139996 -0.284710 0.249575 0.026525 0.063885 -0.310210 -0.014853 -0.029072 -0.568299 0.214625 -0.031304 -0.028084 0.181681 0.012998 -0.285513 -0.002480 0.380533 0.075393 0.169343
da 0.007640 -0.323097 0.029629 -0.431999 0.014476 0.073245 0.003348 -0.212474 0.145776 -0.406986 0.386585 -0.038679 -0.033343 0.158346 0.421847 -0.137008 -0.081475 -0.002636 0.595604 -0.297318 0.327884 -0.195311 0.263821 -0.378928 0.006665 -0.272130 0.206708 0.134418 -0.377504 0.050128 0.005312 0.038030 -0.003324 0.477234 0.173191 -0.094038 -0.191620 -0.130432 -0.047261 -0.031871 -0.206150 -0.439939 0.191011 0.292545 0.321709 -0.054996 -0.367427 0.082688 0.389214 -0.009554
em 0.081749 -0.282021 0.338895 -0.128627 0.281468 0.118783 0.177080 -0.160843 -0.267082 -0.374875 0.135857 -0.241333 0.012975 -0.076770 -0.291969 -0.266471 0.082971 0.320936 -0.189317 -0.194170 -0.224886 -0.232374 0.210488 -0.091307 -0.359629 -0.214863 0.098591 -0.031448 0.582638 -0.450467 0.165852 -0.021149 -0.344533 0.283844 0.227144 -0.129902 0.158351 0.201232 0.029103 0.041141 -0.062593 -0.289339 -0.022280 -0.309993 -0.066073 0.171223 0.038294 0.008338 0.272238 -0.074470
para -0.085260 -0.158111 0.125492 -0.207175 0.731884 -0.046324 -0.171029 -0.170499 -0.095130 -0.218084 -0.184533 0.147210 0.063857 -0.366937 -0.025112 -0.098526 0.115198 0.023777 0.249593 -0.187551 0.080868 -0.115075 0.122703 -0.334469 -0.092986 -0.221379 -0.411533 -0.341871 0.003604 0.118810 -0.162347 -0.061529 -0.286985 0.180887 0.342710 -0.129130 0.116578 0.025672 0.267852 0.034360 -0.025959 0.133450 -0.065477 -0.046071 0.167181 -0.168937 -0.084422 0.081404 -0.170521 0.220934
um 0.088076 0.220544 0.040795 -0.124004 -0.257099 0.004867 -0.025072 0.146757 -0.306084 0.106223 0.323979 -0.007102 0.178366 0.394929 0.515488 0.408173 -0.285979 0.088425 0.077427 -0.052761 0.300583 -0.301011 -0.418740 -0.034562 -0.395222 0.162463 0.196100 0.148299 -0.023740 -0.425291 -0.412085 -0.178068 -0.342229 -0.036799 0.012139 -0.423378 -0.170872 0.057832 -0.030956 -0.428565 0.258026 0.210130 -0.321200 0.027419 -0.155718 0.030684 0.055223 0.140399 -0.259473 0.284381
no -0.062048 0.059512 -0.187894 -0.035545 0.050998 -0.057654 0.039774 -0.126014 -0.526980 -0.198801 0.314363 -0.374177 0.262363 -0.210147 0.469101 -0.487505 0.039738 0.130326 0.039558 0.386263 -0.045694 -0.783691 -0.238457 -0.114774 -0.259781 -0.113541 0.082948 0.169485 0.232931 0.001656 -0.165159 -0.221504 -0.750870 0.128789 0.085795 0.112322 -0.268870 -0.033134 0.174704 -0.107302 0.137274 -0.061640 -0.242108 -0.161308 -0.301606 0.443265 0.222916 0.423649 0.135583 0.073019
com -0.065249 -0.122544 0.030030 0.023077 0.075428 -0.082920 -0.017239 0.085236 0.374676 -0.271635 -0.476205 0.014594 -0.150224 -0.264273 -0.022114 -0.141898 -0.064638 0.326885 0.195764 -0.144526 0.030553 -0.409637 0.113621 -0.430794 -0.032124 -0.266740 -0.258245 -0.107135 0.376194 0.365848 0.107593 0.032143 -0.376593 -0.217409 0.391958 0.140435 0.104735 0.113555 0.002852 -0.294927 0.113592 -0.391156 0.168690 -0.063768 0.134103 0.110688 -0.228664 0.076415 -0.208288 0.041073
é -0.065450 -0.228327 -0.149598 -0.014403 0.114869 -0.123529 -0.094418 0.230620 -0.048535 -0.178864 -0.073593 0.106495 0.129791 -0.330184 -0.119198 0.049998 -0.094839 -0.082102 0.034319 -0.388252 0.318008 -0.309429 -0.001646 -0.097455 0.032855 -0.347824 -0.312902 -0.286941 0.149499 -0.048851 0.416922 -0.393852 0.092589 -0.207971 0.509083 0.618900 -0.403689 -0.162125 -0.087618 -0.070335 -0.388525 -0.017141 0.500735 -0.254045 0.130994 0.298622 0.531058 -0.208166 0.127675 0.250951
uma -0.042388 0.031497 -0.110901 -0.496748 0.008992 0.012441 -0.015493 -0.149761 -0.100223 -0.130819 0.063389 0.057534 0.009147 0.349372 0.641588 0.412683 -0.343677 -0.166657 0.335223 -0.205414 0.320538 -0.232312 0.152831 0.312789 -0.372433 0.080100 0.511105 0.099521 -0.313852 -0.043386 0.205358 0.185084 0.131773 0.324071 -0.203883 -0.300540 -0.020275 0.311155 -0.098329 -0.024213 0.220909 -0.431993 -0.074542 -0.228722 0.380583 0.088598 -0.177141 -0.208094 0.004861 -0.233122
os 0.233334 -0.448768 0.240955 -0.214607 -0.135594 -0.401528 -0.318371 0.158289 -0.421105 0.029103 -0.040473 -0.409095 0.312088 -0.214898 0.153414 0.025138 -0.219373 -0.003716 0.066680 0.376924 -0.253115 0.251494 0.256846 -0.271620 -0.569914 0.257725 0.354420 0.271262 0.091457 -0.017490 -0.294731 0.508116 0.352884 -0.299816 0.101713 0.154255 0.112627 -0.000976 -0.192963 0.123180 0.343873 0.250010 -0.049843 -0.136124 0.018869 0.212860 -0.124768 -0.644182 0.113464 0.134007
não 0.300569 -0.054351 -0.104633 -0.157417 -0.161750 0.104651 -0.143639 0.018582 0.108906 -0.158135 -0.035508 0.275569 -0.145975 -0.001963 -0.032817 -0.103728 -0.122594 0.028581 0.043333 0.003367 -0.293665 -0.227642 0.208549 0.101522 -0.039888 0.219050 0.262031 0.012209 -0.091082 0.001070 -0.025377 0.058611 -0.355987 0.159552 0.011746 -0.230798 0.173269 -0.009367 0.233237 0.001240 0.230833 0.057190 0.033220 0.132705 0.116080 0.127407 0.117637 -0.001934 -0.264328 0.073344
